gru/gru_cell/kernel:0
(1, 240)
[[ 0.1485503  -0.47145355 -0.3664561  -0.23716785 -0.33890453 -0.2283545
  -0.23847683 -0.20231442 -0.32282382 -0.35785928 -0.40241575 -0.05815604
  -0.47253826 -0.55122954 -0.19242667 -0.27906245 -0.45991138 -0.35867995
  -0.32155973 -0.4416363  -0.22967777 -0.28338143 -0.26336613 -0.41946495
  -0.26186416 -0.5522764  -0.22271413 -0.09284946 -0.45335698 -0.319121
  -0.22983532 -0.39657795 -0.47102252 -0.38117188 -0.45259616 -0.41243324
  -0.37065983 -0.3072724  -0.32277745 -0.4041365   0.11769898 -0.47530675
  -0.55713534 -0.03797788 -0.40659255 -0.3945439  -0.41376102 -0.23790249
  -0.29081604 -0.39106697 -0.44529337 -0.13327391 -0.45846048 -0.38524476
  -0.21549073 -0.1763793  -0.38407612 -0.15126134 -0.30899647 -0.35999122
  -0.42470115 -0.3345316  -0.13756989 -0.2587285  -0.3362865  -0.15247504
  -0.37454736 -0.3041951  -0.35278863 -0.411248   -0.31373546 -0.04247519
  -0.31854662 -0.42244408 -0.19027473 -0.35463    -0.4875705  -0.46824297
  -0.5094331  -0.23829618  0.00694964  0.00538926  0.08979992 -0.02922587
  -0.04458056 -0.0394697   0.08558816  0.02887337  0.07837881  0.15279084
  -0.03557247  0.14033535  0.01505094  0.03908847  0.04425012  0.14889038
  -0.17508611  0.10735019 -0.1044425  -0.10047051 -0.06932785  0.0295338
   0.03142291  0.1529609  -0.020713   -0.04678877 -0.15607202 -0.03420362
  -0.02684219 -0.01481293  0.0742991   0.00733297  0.11214593 -0.11461511
  -0.03703563  0.07256723  0.15507579 -0.04372432  0.0515468  -0.05750878
   0.0097373   0.00079268  0.02285486 -0.13286994 -0.03251902  0.0026718
   0.09647347  0.10761837 -0.12497307  0.0173944   0.00575673  0.12272649
  -0.11839271 -0.14208901  0.01090128  0.13565715  0.02726565 -0.08601024
   0.05892229  0.09250085 -0.14777982 -0.14585043  0.02336447 -0.03122811
  -0.08656801 -0.00476946  0.11326215 -0.10716567 -0.02219014 -0.10553492
   0.06228927  0.09071937 -0.01878197  0.08581296 -0.10580525 -0.00693994
  -0.03110672  0.05410237 -0.01655826 -0.15542941 -0.11341178 -0.07782805
   0.10234614 -0.02699625 -0.14066435  0.12754682  0.02316324 -0.06107761
   0.05521231  0.13394824 -0.08228325 -0.05464383 -0.02552292  0.07698815
   0.07360865  0.09088464  0.14083496 -0.04411028  0.09919007  0.15572122
   0.08088891  0.06294921  0.13979071 -0.13979946  0.1318274  -0.09267864
  -0.11856841 -0.05186527  0.14388187 -0.10226657 -0.0700058  -0.04027331
   0.06062884 -0.02135848  0.14541109 -0.04730237 -0.07829957  0.09908772
   0.0696843   0.07334013 -0.00172492  0.09391715  0.0920342   0.12549977
  -0.09626608  0.01511766  0.07483732  0.14200875 -0.02969321  0.08419999
  -0.0977824  -0.02488665 -0.06842862  0.11277619 -0.090722   -0.01402732
   0.00984894 -0.09937744 -0.10974237  0.10929549  0.14047496 -0.13428791
  -0.13730153  0.02862424  0.06683598 -0.12797894  0.0575194   0.13862142
  -0.1467435  -0.05052125 -0.03816282 -0.0535023   0.06094129 -0.14969696
  -0.11416736 -0.02658022 -0.07811435  0.09637626 -0.12702443  0.01802339]]
gru/gru_cell/recurrent_kernel:0
(80, 240)
[[-0.17116764  0.09600685  0.12190977 ...  0.04009923 -0.14313194
  -0.10052153]
 [-0.10136685  0.09156474  0.15747851 ...  0.03551807  0.05648866
  -0.03198818]
 [ 0.00578697 -0.13887689 -0.1850206  ... -0.03835607 -0.09063116
  -0.05199228]
 ...
 [ 0.06081891 -0.11285737 -0.03648067 ...  0.01050394 -0.01981765
  -0.10125601]
 [-0.04423234  0.03210146  0.08607835 ...  0.04023841 -0.05351242
   0.00708721]
 [ 0.02497687  0.1225196   0.08448642 ... -0.078664    0.0920037
  -0.04337532]]
gru/gru_cell/bias:0
(2, 240)
[[ 5.26376478e-02 -4.86629814e-01 -6.02194071e-01 -1.19896546e-01
  -5.43423951e-01 -4.35587883e-01 -2.96025932e-01 -4.19762433e-01
  -4.58916098e-01 -2.88015097e-01 -4.48255986e-01 -1.14394225e-01
  -4.28081691e-01 -5.50578713e-01 -3.67976248e-01 -5.46400189e-01
  -4.43945259e-01 -4.23865438e-01 -5.03429890e-01 -6.64170682e-01
  -4.12045807e-01 -3.08789641e-01 -4.40572321e-01 -5.11413455e-01
  -3.57271582e-01 -6.05532706e-01 -4.34607714e-01 -1.29310861e-01
  -4.30286735e-01 -4.05829996e-01 -4.15531456e-01 -5.37917852e-01
  -4.94466931e-01 -3.10011774e-01 -4.34139460e-01 -4.30667877e-01
  -4.54309672e-01 -4.23224151e-01 -3.74199122e-01 -5.13192475e-01
  -6.94909971e-03 -5.15291870e-01 -5.18165052e-01 -1.56751677e-01
  -5.28735340e-01 -3.54624182e-01 -4.34366912e-01 -3.75891000e-01
  -3.52895051e-01 -4.78731066e-01 -4.19644982e-01 -2.41244406e-01
  -4.35761631e-01 -3.94793987e-01 -4.39593583e-01 -6.27758577e-02
  -2.72964656e-01 -3.39774579e-01 -3.97487789e-01 -4.15390074e-01
  -3.81967932e-01 -4.99168932e-01 -2.92205125e-01 -2.57277936e-01
  -5.57671368e-01 -3.42929602e-01 -5.08358777e-01 -4.23697531e-01
  -3.68020833e-01 -4.06491101e-01 -4.72936660e-01 -2.13718727e-01
  -5.36110520e-01 -4.82779235e-01 -3.29373062e-01 -3.44947159e-01
  -4.37414199e-01 -4.91297632e-01 -4.74536479e-01 -1.58580408e-01
  -7.17203773e-04 -2.89371870e-02 -3.00464369e-02 -2.10352428e-02
  -7.90508743e-03 -3.20459076e-04 -1.42200794e-02 -1.00375684e-02
  -1.20701455e-02  1.97186391e-03 -7.24131102e-03  5.86741557e-03
   8.18909088e-04 -1.11353723e-02 -1.08200815e-02 -5.50510595e-03
  -1.21355038e-02 -1.12656793e-02  8.17519054e-03  1.41027998e-02
  -5.79933263e-03 -2.31853109e-02 -1.25928158e-02  6.74644951e-03
   1.37837010e-03 -2.78551201e-03 -4.43194807e-03  9.95120220e-03
  -5.84059674e-03  1.79505383e-03 -4.46681166e-03 -1.38321677e-02
  -1.24900211e-02 -9.57406685e-03  4.44647344e-03 -6.74004015e-03
   3.66272079e-03 -5.12766559e-03 -5.67602227e-03 -2.54007168e-02
  -9.24284011e-03 -9.32649430e-03 -1.89609323e-02 -1.53768603e-02
  -7.86967855e-03  2.88106292e-03 -2.86821648e-03 -6.59449585e-03
  -3.43266805e-03 -8.63646902e-03  2.56732944e-03 -1.87816247e-02
  -5.41440537e-03 -7.10883585e-04 -2.27178223e-02 -1.07661569e-02
  -4.39860998e-03 -6.81967195e-03 -1.18957506e-02  6.83232350e-03
   2.53627193e-04 -8.05842283e-05 -2.62870034e-03 -3.18442807e-02
  -5.01321107e-02 -1.03498604e-02 -2.26685964e-02 -1.91024672e-02
   3.57967312e-03 -1.33591816e-02 -5.70864715e-02 -1.52372813e-03
  -1.82020422e-02  1.04087386e-02  1.09156026e-02 -2.35844664e-02
  -3.90892588e-02 -1.03508392e-02 -1.17688794e-02 -2.58179475e-02
   9.91106872e-03  1.40259629e-02 -1.60581339e-02  8.45877640e-03
   2.00221557e-02 -1.61474422e-02 -5.15211513e-03  1.16641838e-02
  -1.08656678e-02 -1.68519523e-02  1.20347813e-02  6.71860622e-03
   3.68489814e-03 -1.07609015e-02 -6.37227856e-03 -1.29177328e-02
  -1.95763316e-02  6.16204087e-03 -1.48654077e-02 -2.34983303e-02
  -8.65633879e-03 -7.38527952e-03 -1.70365460e-02  1.84698012e-02
  -1.44063774e-02  1.57537572e-02  1.37176868e-02  9.99950338e-03
  -1.54576860e-02  1.26093207e-02  9.62145254e-03  6.34109881e-03
  -8.24387465e-03  6.79438561e-03 -1.65479146e-02  7.74472114e-03
   9.88800731e-03 -1.41069451e-02 -1.03885876e-02 -9.17965267e-03
  -4.59699746e-04 -1.25133879e-02 -1.36426892e-02 -1.21173337e-02
   1.19081568e-02 -3.96813825e-03 -1.13445092e-02 -1.57967843e-02
   6.10029837e-03 -1.12115964e-02  1.67219825e-02  6.70322450e-03
   7.90282246e-03 -1.41452588e-02  1.07488614e-02 -7.04026432e-04
  -4.11744229e-03  1.11576421e-02  1.31592434e-02 -1.57817490e-02
  -1.81872584e-02  1.54644866e-02  1.85948163e-02 -8.51273164e-03
  -8.74452572e-03  1.81680508e-02 -1.07678361e-02 -1.98467821e-02
   1.58290137e-02  8.34306516e-03  6.80314843e-03  1.08727887e-02
  -9.33431461e-03  1.84284560e-02  1.44383106e-02  5.96135529e-03
   1.59751009e-02 -1.45288715e-02  1.55120855e-02 -3.54323559e-03]
 [ 5.26376404e-02 -4.86629784e-01 -6.02194130e-01 -1.19896546e-01
  -5.43423951e-01 -4.35587883e-01 -2.96025902e-01 -4.19762433e-01
  -4.58916098e-01 -2.88015097e-01 -4.48256016e-01 -1.14394203e-01
  -4.28081691e-01 -5.50578713e-01 -3.67976248e-01 -5.46400130e-01
  -4.43945289e-01 -4.23865438e-01 -5.03429890e-01 -6.64170802e-01
  -4.12045747e-01 -3.08789641e-01 -4.40572321e-01 -5.11413455e-01
  -3.57271582e-01 -6.05532765e-01 -4.34607744e-01 -1.29310846e-01
  -4.30286705e-01 -4.05829996e-01 -4.15531456e-01 -5.37917852e-01
  -4.94466960e-01 -3.10011774e-01 -4.34139490e-01 -4.30667847e-01
  -4.54309672e-01 -4.23224151e-01 -3.74199122e-01 -5.13192475e-01
  -6.94909971e-03 -5.15291870e-01 -5.18165052e-01 -1.56751648e-01
  -5.28735340e-01 -3.54624182e-01 -4.34366822e-01 -3.75891060e-01
  -3.52895051e-01 -4.78730947e-01 -4.19644952e-01 -2.41244391e-01
  -4.35761660e-01 -3.94793928e-01 -4.39593643e-01 -6.27758652e-02
  -2.72964656e-01 -3.39774579e-01 -3.97487819e-01 -4.15390015e-01
  -3.81967932e-01 -4.99168932e-01 -2.92205185e-01 -2.57277936e-01
  -5.57671368e-01 -3.42929602e-01 -5.08358777e-01 -4.23697472e-01
  -3.68020833e-01 -4.06491101e-01 -4.72936660e-01 -2.13718742e-01
  -5.36110520e-01 -4.82779235e-01 -3.29373062e-01 -3.44947189e-01
  -4.37414199e-01 -4.91297692e-01 -4.74536538e-01 -1.58580422e-01
  -7.17208197e-04 -2.89371908e-02 -3.00464332e-02 -2.10352391e-02
  -7.90509023e-03 -3.20457388e-04 -1.42200794e-02 -1.00375703e-02
  -1.20701483e-02  1.97187369e-03 -7.24131288e-03  5.86740999e-03
   8.18911649e-04 -1.11353770e-02 -1.08200815e-02 -5.50510176e-03
  -1.21355103e-02 -1.12656793e-02  8.17519240e-03  1.41027998e-02
  -5.79933170e-03 -2.31853034e-02 -1.25928149e-02  6.74644485e-03
   1.37836952e-03 -2.78551271e-03 -4.43194946e-03  9.95120779e-03
  -5.84059628e-03  1.79505197e-03 -4.46681306e-03 -1.38321733e-02
  -1.24900211e-02 -9.57406592e-03  4.44647344e-03 -6.74003735e-03
   3.66271310e-03 -5.12766605e-03 -5.67602366e-03 -2.54007168e-02
  -9.24284011e-03 -9.32649430e-03 -1.89609360e-02 -1.53768603e-02
  -7.86967762e-03  2.88106152e-03 -2.86821881e-03 -6.59449864e-03
  -3.43266758e-03 -8.63646902e-03  2.56733038e-03 -1.87816359e-02
  -5.41440398e-03 -7.10881781e-04 -2.27178205e-02 -1.07661579e-02
  -4.39861463e-03 -6.81967195e-03 -1.18957497e-02  6.83232630e-03
   2.53628183e-04 -8.05815143e-05 -2.62869988e-03 -3.18442769e-02
  -5.01321107e-02 -1.03498669e-02 -2.26685964e-02 -1.91024709e-02
   3.57967033e-03 -1.33591779e-02 -5.70864752e-02 -1.52372557e-03
  -1.82020459e-02  1.04087349e-02  1.09156016e-02 -2.35844683e-02
  -3.90892513e-02 -1.03508364e-02 -1.17688887e-02 -2.58179642e-02
   9.76944622e-03  1.34186549e-02 -1.49801746e-02  8.19967408e-03
   1.94659829e-02 -1.59195662e-02 -5.04314899e-03  1.13311615e-02
  -1.05243847e-02 -1.65554881e-02  1.19106723e-02  6.58309879e-03
   3.58270295e-03 -1.00502558e-02 -6.08023768e-03 -1.21942014e-02
  -1.94261540e-02  5.72674582e-03 -1.48087163e-02 -2.35870872e-02
  -8.80092289e-03 -6.81944238e-03 -1.66949220e-02  1.82189681e-02
  -1.43571747e-02  1.55892167e-02  1.41356904e-02  9.81586240e-03
  -1.53229758e-02  1.24742631e-02  9.29577183e-03  6.50984468e-03
  -7.65032414e-03  7.08342297e-03 -1.64551362e-02  7.42931059e-03
   9.69235692e-03 -1.39230406e-02 -1.01176379e-02 -9.14610550e-03
  -5.88878582e-04 -1.20966416e-02 -1.32257901e-02 -1.14770355e-02
   1.17185200e-02 -4.00090031e-03 -1.06381914e-02 -1.53710693e-02
   6.53016521e-03 -1.09261256e-02  1.63376052e-02  6.64031273e-03
   7.99179450e-03 -1.40558966e-02  1.03441710e-02 -7.72051397e-04
  -4.19963105e-03  1.12745129e-02  1.28442114e-02 -1.52518144e-02
  -1.80256739e-02  1.55373970e-02  1.81412101e-02 -7.91629031e-03
  -8.73087160e-03  1.80634577e-02 -1.01838848e-02 -1.95030719e-02
   1.57064423e-02  8.42315890e-03  6.55598380e-03  1.03995232e-02
  -8.95276759e-03  1.81912519e-02  1.44133512e-02  6.53370004e-03
   1.52351884e-02 -1.39944581e-02  1.50261680e-02 -3.60654225e-03]]
gru_1/gru_cell_1/kernel:0
(80, 300)
[[-0.1126163  -0.07710771 -0.02969401 ...  0.12884508 -0.02355515
   0.04978834]
 [ 0.08087566 -0.04256971  0.04886507 ... -0.02796603  0.01152365
  -0.12020341]
 [ 0.02112577  0.17161903  0.07171328 ... -0.05093205  0.0381792
  -0.0390828 ]
 ...
 [ 0.14556725 -0.01787436 -0.07779004 ... -0.08927971  0.09309119
   0.07781405]
 [-0.03461464 -0.01846588 -0.04538475 ...  0.03022206  0.08190497
   0.00593245]
 [ 0.04058867 -0.14252876 -0.10034001 ...  0.05798461  0.10495343
   0.10478758]]
gru_1/gru_cell_1/recurrent_kernel:0
(100, 300)
[[-0.14081043 -0.06138394  0.02525368 ... -0.0689838  -0.06952155
   0.02324147]
 [ 0.01535473  0.04866756  0.07533788 ... -0.00982505  0.00505116
   0.01817693]
 [ 0.00575621 -0.08559512 -0.08737224 ... -0.00915635 -0.06099085
  -0.0131751 ]
 ...
 [-0.17606193  0.05652951 -0.11991087 ...  0.01276899 -0.01864535
   0.01647736]
 [-0.00187253 -0.01445533 -0.0774117  ... -0.05662931 -0.01451817
   0.052282  ]
 [ 0.12131379  0.07261137  0.10170209 ... -0.00105497 -0.02512047
   0.07075576]]
gru_1/gru_cell_1/bias:0
(2, 300)
[[ 0.09194021  0.07708854  0.06468237  0.00657336 -0.0149102   0.02100068
   0.04520672  0.07047383  0.12229067 -0.03335832  0.06630163  0.15151642
   0.01865474  0.05285815  0.10277535  0.12540497  0.08924254 -0.01707587
   0.08311414  0.08479587  0.0262696   0.01479097  0.10724925 -0.01958836
   0.09929249  0.02836183 -0.01235537  0.05675096  0.12797889  0.07964271
   0.03723156 -0.01097324  0.0017423   0.09414409 -0.00551294  0.06255133
   0.03616704  0.00436499  0.04415073  0.12414642  0.0280898   0.06849559
   0.07422538  0.06377054  0.05602463  0.09889188  0.07798746  0.01921926
   0.0897827   0.0107901   0.03165982  0.01132201  0.06458945  0.04046592
   0.0877742   0.04121973  0.01697104  0.09251272  0.05350151  0.05408413
   0.03763296  0.05775207  0.0512559   0.03283416  0.00386068  0.00849758
   0.13780646  0.07414205  0.04065089 -0.03029322  0.07959265  0.06551892
   0.04242736  0.08985302 -0.00508265  0.07256108  0.17024074  0.09352051
   0.04526134  0.10295414  0.05921589  0.11851697  0.00517846  0.00017829
   0.06537371 -0.01923992  0.03044215  0.01631655  0.07336735  0.08847585
   0.00066873  0.12077077  0.08867279  0.01762791  0.06301722  0.08599851
   0.03250206  0.12773168  0.0547788  -0.00340793 -0.0305918   0.012769
  -0.02862127  0.01375507 -0.01763414 -0.01217303 -0.00933878 -0.00630127
  -0.00626472 -0.03271973 -0.0313397  -0.0201408  -0.0491695  -0.01905942
  -0.01724153 -0.01440161 -0.03290791 -0.05447726 -0.02953421 -0.01607958
  -0.04705232 -0.03158223 -0.00882039 -0.04579418 -0.01899281 -0.04195993
  -0.02312343 -0.03905056 -0.0108068  -0.0185313  -0.01311092 -0.01232522
  -0.0152317  -0.0167686  -0.01964225 -0.01206449 -0.00763648 -0.02106305
  -0.02594824 -0.02734347 -0.03017542 -0.00056071 -0.003194    0.01455297
  -0.02606816 -0.03792274  0.01504957 -0.01687262 -0.02074386 -0.03364613
  -0.00755808  0.00032318 -0.01566868 -0.04083109 -0.00329401 -0.0269034
  -0.03424517 -0.00815747  0.00319917 -0.00256889  0.00702721 -0.00264065
   0.02547009 -0.01693375 -0.01036526 -0.01519562 -0.03429512 -0.03106629
  -0.03429094 -0.00533185 -0.04728957 -0.00784288 -0.01125635 -0.03056015
  -0.02901121 -0.02345194 -0.00781572 -0.00593396 -0.0260193  -0.02556897
  -0.02130817 -0.00266317 -0.013749   -0.00348128 -0.01494916 -0.01717152
  -0.05313878 -0.04443169 -0.01714429 -0.0191121  -0.03487615 -0.02677961
  -0.02819691 -0.00732095 -0.03512321 -0.00725973 -0.02636778 -0.01565438
   0.00257196 -0.02421802 -0.00635167  0.00070976 -0.00508314 -0.0091237
  -0.00881058  0.01483446 -0.00977363 -0.00760667 -0.01248222 -0.0117358
  -0.00790402  0.01017882  0.00908451 -0.00789431 -0.00801262 -0.00457588
   0.00857265 -0.00781909 -0.00883663 -0.00522296  0.00762181 -0.00814669
  -0.01021086  0.00619434  0.01271737  0.00989965  0.0054566  -0.00787584
   0.00782397  0.00678895 -0.00719005  0.00415183  0.0072794   0.00819347
   0.00609289  0.00945344 -0.0065096   0.01542093  0.00715568  0.00647309
   0.0084208   0.0052227  -0.00492952 -0.0077338  -0.00701365 -0.00484813
   0.00678708 -0.01312606  0.00800763 -0.00922359  0.00326251  0.00897703
  -0.00707386  0.0078458   0.00609296 -0.00686643 -0.00661154  0.01026451
   0.00332031  0.00497823  0.01538454  0.00355284 -0.00573075 -0.00720409
  -0.00780656  0.00705336 -0.01019095 -0.00817364  0.00851604 -0.00490639
   0.01131694 -0.00920891 -0.00855755  0.00920012  0.01622555  0.0056335
  -0.0053617   0.0071389  -0.01506046  0.00845526  0.00845187 -0.00919183
   0.00763432  0.00860149 -0.00970388 -0.00639546 -0.00580697 -0.01201214
  -0.00804071  0.00558175 -0.01269151  0.00711166  0.00708154 -0.00736967
  -0.00581613 -0.00613178  0.00882776 -0.01354585 -0.00433628  0.00757589]
 [ 0.09194019  0.07708853  0.06468236  0.00657336 -0.01491021  0.02100068
   0.04520674  0.07047383  0.12229067 -0.03335831  0.06630162  0.15151648
   0.01865473  0.05285815  0.10277535  0.12540497  0.08924253 -0.01707586
   0.08311414  0.08479588  0.02626961  0.01479096  0.10724926 -0.01958835
   0.09929246  0.02836184 -0.01235537  0.05675096  0.1279789   0.07964272
   0.03723155 -0.01097323  0.00174228  0.09414408 -0.00551294  0.06255133
   0.03616705  0.00436498  0.04415074  0.12414642  0.02808979  0.06849557
   0.07422538  0.06377053  0.05602463  0.09889187  0.07798747  0.01921927
   0.08978269  0.0107901   0.03165981  0.01132201  0.06458944  0.04046592
   0.08777421  0.04121973  0.01697103  0.09251275  0.05350152  0.05408412
   0.03763294  0.05775206  0.0512559   0.03283414  0.00386069  0.00849758
   0.13780645  0.07414206  0.04065092 -0.03029322  0.07959267  0.06551892
   0.04242736  0.089853   -0.00508264  0.07256107  0.17024074  0.09352049
   0.04526135  0.10295416  0.05921589  0.11851694  0.00517846  0.0001783
   0.06537369 -0.01923992  0.03044214  0.01631655  0.07336734  0.08847585
   0.00066873  0.12077078  0.08867279  0.0176279   0.06301721  0.0859985
   0.03250207  0.12773168  0.05477878 -0.00340794 -0.0305918   0.012769
  -0.02862126  0.01375508 -0.01763414 -0.01217304 -0.00933877 -0.00630127
  -0.00626472 -0.03271974 -0.03133969 -0.0201408  -0.0491695  -0.01905942
  -0.01724152 -0.01440161 -0.0329079  -0.05447727 -0.02953421 -0.01607958
  -0.04705231 -0.03158223 -0.00882039 -0.04579417 -0.0189928  -0.04195992
  -0.02312343 -0.03905055 -0.0108068  -0.0185313  -0.01311092 -0.01232522
  -0.01523171 -0.0167686  -0.01964225 -0.01206449 -0.00763648 -0.02106304
  -0.02594824 -0.02734347 -0.03017542 -0.00056071 -0.003194    0.01455297
  -0.02606815 -0.03792274  0.01504957 -0.01687261 -0.02074387 -0.03364613
  -0.00755808  0.00032318 -0.01566868 -0.04083109 -0.00329401 -0.0269034
  -0.03424517 -0.00815747  0.00319918 -0.00256889  0.00702721 -0.00264066
   0.0254701  -0.01693375 -0.01036526 -0.01519562 -0.03429512 -0.03106628
  -0.03429094 -0.00533185 -0.04728958 -0.00784289 -0.01125635 -0.03056015
  -0.02901121 -0.02345194 -0.00781572 -0.00593396 -0.0260193  -0.02556897
  -0.02130818 -0.00266317 -0.013749   -0.00348129 -0.01494916 -0.01717152
  -0.05313879 -0.04443169 -0.01714429 -0.0191121  -0.03487617 -0.02677961
  -0.02819691 -0.00732095 -0.03512321 -0.00725973 -0.02636778 -0.01565438
   0.00257195 -0.02421801 -0.00614804  0.00026745 -0.00492913 -0.00885395
  -0.00775775  0.01338979 -0.01003884 -0.00781301 -0.01268779 -0.01125153
  -0.00804361  0.00972284  0.00997792 -0.00806331 -0.00711667 -0.00451157
   0.00870545 -0.00789193 -0.00688429 -0.00552025  0.00752837 -0.00793392
  -0.01055796  0.00635597  0.01236742  0.01022323  0.00593329 -0.00747671
   0.00804852  0.0066025  -0.00702567  0.00318495  0.00693617  0.00819301
   0.0061122   0.00920847 -0.00625743  0.01434962  0.00667381  0.00630206
   0.00842241  0.00519099 -0.00456104 -0.00782317 -0.00591985 -0.00462279
   0.00620189 -0.01235627  0.00752915 -0.00935685  0.00300334  0.00873908
  -0.00740417  0.00771391  0.00603342 -0.0060536  -0.00610122  0.00973114
   0.00321692  0.00399097  0.01487479  0.00354655 -0.00564629 -0.00734768
  -0.00775946  0.00662142 -0.00939907 -0.00796872  0.00680721 -0.0050992
   0.01123655 -0.00956414 -0.00858067  0.00970818  0.01581446  0.00553861
  -0.00539006  0.00683188 -0.01565624  0.00862446  0.00805673 -0.00880313
   0.00732964  0.00820967 -0.00987416 -0.0065118  -0.00601461 -0.01189895
  -0.00807683  0.00544379 -0.01242597  0.00756542  0.00718072 -0.0071486
  -0.00612185 -0.00587502  0.00856035 -0.01271511 -0.0039598   0.00793155]]
dense/kernel:0
(100, 1)
[[-0.17960095]
 [ 0.10876011]
 [-0.1517845 ]
 [-0.06534541]
 [-0.10819768]
 [ 0.0698903 ]
 [-0.14857675]
 [-0.22783656]
 [-0.10154095]
 [-0.12110271]
 [-0.14742634]
 [ 0.05836397]
 [ 0.1048603 ]
 [-0.11024087]
 [-0.04409011]
 [-0.12222783]
 [ 0.14168553]
 [-0.2100928 ]
 [-0.15384388]
 [-0.21207626]
 [ 0.16242665]
 [-0.15329158]
 [-0.16203836]
 [ 0.18513304]
 [ 0.07833841]
 [ 0.18443011]
 [ 0.19454359]
 [-0.15381043]
 [ 0.19025464]
 [ 0.18159953]
 [-0.19199064]
 [ 0.13604598]
 [ 0.07123759]
 [ 0.17546825]
 [ 0.20369887]
 [ 0.12559555]
 [-0.17034587]
 [ 0.05670932]
 [ 0.15635295]
 [ 0.22863357]
 [ 0.12138443]
 [ 0.19148183]
 [-0.17723292]
 [-0.08303753]
 [-0.1706699 ]
 [-0.20716299]
 [ 0.09138817]
 [-0.07336685]
 [ 0.10268233]
 [-0.15483584]
 [ 0.17162867]
 [ 0.09832135]
 [-0.19392371]
 [ 0.13489604]
 [ 0.1749259 ]
 [-0.07639213]
 [-0.19018689]
 [ 0.04880987]
 [ 0.02171586]
 [ 0.17780292]
 [ 0.04945248]
 [-0.00486083]
 [-0.06830295]
 [-0.15670611]
 [-0.15700671]
 [ 0.17230842]
 [-0.10172196]
 [-0.18324487]
 [ 0.05383194]
 [-0.15536718]
 [ 0.11660158]
 [-0.20417057]
 [-0.21737653]
 [ 0.14255534]
 [ 0.05664451]
 [ 0.20195772]
 [-0.12336421]
 [ 0.21596713]
 [-0.07425885]
 [ 0.17802337]
 [ 0.09303752]
 [-0.09277308]
 [ 0.11006133]
 [ 0.0810397 ]
 [-0.14983311]
 [-0.19942823]
 [-0.20433836]
 [-0.08919378]
 [-0.11863717]
 [ 0.18258847]
 [-0.05753246]
 [ 0.21971793]
 [ 0.1923755 ]
 [-0.21520294]
 [-0.22241935]
 [-0.0740442 ]
 [ 0.0535998 ]
 [-0.04631986]
 [-0.08449045]
 [ 0.17439191]]
dense/bias:0
(1,)
[0.06461874]
